/*
 * Copyright (c) 2026 EdgeImpulse Inc.
 *
 * Generated by Edge Impulse and licensed under the applicable Edge Impulse
 * Terms of Service. Community and Professional Terms of Service
 * (https://edgeimpulse.com/legal/terms-of-service) or Enterprise Terms of
 * Service (https://edgeimpulse.com/legal/enterprise-terms-of-service),
 * according to your product plan subscription (the “License”).
 *
 * This software, documentation and other associated files (collectively referred
 * to as the “Software”) is a single SDK variation generated by the Edge Impulse
 * platform and requires an active paid Edge Impulse subscription to use this
 * Software for any purpose.
 *
 * You may NOT use this Software unless you have an active Edge Impulse subscription
 * that meets the eligibility requirements for the applicable License, subject to
 * your full and continued compliance with the terms and conditions of the License,
 * including without limitation any usage restrictions under the applicable License.
 *
 * If you do not have an active Edge Impulse product plan subscription, or if use
 * of this Software exceeds the usage limitations of your Edge Impulse product plan
 * subscription, you are not permitted to use this Software and must immediately
 * delete and erase all copies of this Software within your control or possession.
 * Edge Impulse reserves all rights and remedies available to enforce its rights.
 *
 * Unless required by applicable law or agreed to in writing, the Software is
 * distributed on an "AS IS" BASIS, WITHOUT WARRANTIES OR CONDITIONS OF ANY KIND,
 * either express or implied. See the License for the specific language governing
 * permissions, disclaimers and limitations under the License.
 */
// Generated on: 05.03.2026 04:19:44

#include <stdio.h>
#include <stdlib.h>
#include "edge-impulse-sdk/tensorflow/lite/c/builtin_op_data.h"
#include "edge-impulse-sdk/tensorflow/lite/c/common.h"
#include "edge-impulse-sdk/tensorflow/lite/micro/micro_mutable_op_resolver.h"
#include "edge-impulse-sdk/porting/ei_classifier_porting.h"

#if EI_CLASSIFIER_PRINT_STATE
#if defined(__cplusplus) && EI_C_LINKAGE == 1
extern "C" {
    extern void ei_printf(const char *format, ...);
}
#else
extern void ei_printf(const char *format, ...);
#endif
#endif

#define STRINGIZE(x) #x
#define STRINGIZE_VALUE_OF(x) STRINGIZE(x)

#if defined (__GNUC__)  /* GNU compiler */
#define ALIGN(X) __attribute__((aligned(X)))
#define DEFINE_SECTION(x) __attribute__((section(x)))
#elif defined (_MSC_VER)
#define ALIGN(X) __declspec(align(X))
#elif defined (__TASKING__) /* TASKING Compiler */
#define ALIGN(X) __align(X)
#define DEFINE_SECTION(x) __attribute__((section(x)))
#elif defined (__ARMCC_VERSION) /* Arm Compiler */
#define ALIGN(X) __ALIGNED(x)
#define DEFINE_SECTION(x) __attribute__((section(x)))
#elif defined (__ICCARM__) /* IAR Compiler */
#define ALIGN(x) __attribute__((aligned(x)))
#define DEFINE_SECTION(x) __attribute__((section(x)))
#elif defined (__clang__) /* LLVM/Clang Compiler */
#define ALIGN(X) __ALIGNED(x)
#define DEFINE_SECTION(x) __attribute__((section(x)))
#endif

#if defined(EI_MODEL_SECTION) && (defined(__GNUC__) || defined(__clang__))
#define MODEL_SECTION(X) __attribute__((section(STRINGIZE_VALUE_OF(X))))
#else
#define MODEL_SECTION(X)
#endif

#ifndef EI_MAX_SCRATCH_BUFFER_COUNT
#ifndef CONFIG_IDF_TARGET_ESP32S3
#define EI_MAX_SCRATCH_BUFFER_COUNT 4
#else
#define EI_MAX_SCRATCH_BUFFER_COUNT 4
#endif // CONFIG_IDF_TARGET_ESP32S3
#endif // EI_MAX_SCRATCH_BUFFER_COUNT

#ifndef EI_MAX_OVERFLOW_BUFFER_COUNT
#define EI_MAX_OVERFLOW_BUFFER_COUNT 10
#endif // EI_MAX_OVERFLOW_BUFFER_COUNT

using namespace tflite;
using namespace tflite::ops;
using namespace tflite::ops::micro;

namespace {

#if defined(EI_CLASSIFIER_ALLOCATION_STATIC_HIMAX) || defined(EI_CLASSIFIER_ALLOCATION_STATIC_HIMAX_GNU)
constexpr int kTensorArenaSize = 1808;
#else
constexpr int kTensorArenaSize = 784;
#endif

#if defined(EI_CLASSIFIER_ALLOCATION_STATIC)
#if defined (EI_TENSOR_ARENA_LOCATION)
uint8_t tensor_arena[kTensorArenaSize] ALIGN(16) DEFINE_SECTION(STRINGIZE_VALUE_OF(EI_TENSOR_ARENA_LOCATION));
#else
uint8_t tensor_arena[kTensorArenaSize] ALIGN(16);
#endif
#elif defined(EI_CLASSIFIER_ALLOCATION_STATIC_HIMAX)
#pragma Bss(".tensor_arena")
uint8_t tensor_arena[kTensorArenaSize] ALIGN(16);
#pragma Bss()
#elif defined(EI_CLASSIFIER_ALLOCATION_STATIC_HIMAX_GNU)
uint8_t tensor_arena[kTensorArenaSize] ALIGN(16) __attribute__((section(".tensor_arena")));
#else
#define EI_CLASSIFIER_ALLOCATION_HEAP 1
uint8_t* tensor_arena = NULL;
#endif

static uint8_t* tensor_boundary;
static uint8_t* current_location;

template <int SZ, class T> struct TfArray {
  int sz; T elem[SZ];
};

enum used_operators_e {
  OP_FULLY_CONNECTED, OP_SOFTMAX,  OP_LAST
};

struct TensorInfo_t { // subset of TfLiteTensor used for initialization from constant memory
  TfLiteAllocationType allocation_type;
  void* data;
  TfLiteIntArray* dims;
  size_t bytes;
};

typedef struct {
  TfLiteTensor tensor;
  int16_t index;
} TfLiteTensorWithIndex;

typedef struct {
  TfLiteEvalTensor tensor;
  int16_t index;
} TfLiteEvalTensorWithIndex;

TfLiteContext ctx{};
static const int MAX_TFL_TENSOR_COUNT = 4;
static TfLiteTensorWithIndex tflTensors[MAX_TFL_TENSOR_COUNT];
static const int MAX_TFL_EVAL_COUNT = 4;
static TfLiteEvalTensorWithIndex tflEvalTensors[MAX_TFL_EVAL_COUNT];
TfLiteRegistration registrations[OP_LAST];

namespace g0 {
const TfArray<2, int> tensor_dimension0 = { 2, { 1,93 } };
const MODEL_SECTION(EI_MODEL_SECTION) ALIGN(16) float tensor_data1[10] = { -0.089130960404872894, 0, 0.023975204676389694, 0.0027971388772130013, -0.007225514855235815, -0.12194479256868362, -0.051423937082290649, 0.052393071353435516, 0.064924746751785278, -0.018152195960283279, };
const TfArray<1, int> tensor_dimension1 = { 1, { 10 } };
const MODEL_SECTION(EI_MODEL_SECTION) ALIGN(16) float tensor_data2[20] = { 0.012475057505071163, -0.058141425251960754, 0.07473098486661911, -0.004171246662735939, -0.047011584043502808, -0.040746476501226425, -0.057358730584383011, 0.011061912402510643, 0.039167087525129318, 0, -0.0037311168853193521, -0.012907934375107288, 0.15034045279026031, -0.014732213690876961, -0.044511217623949051, 0.065308928489685059, 0, 0.034176018089056015, 0, -0.015212873928248882, };
const TfArray<1, int> tensor_dimension2 = { 1, { 20 } };
const MODEL_SECTION(EI_MODEL_SECTION) ALIGN(8) float tensor_data3[3] = { -0.036225952208042145, -0.059802688658237457, 0.10958137363195419, };
const TfArray<1, int> tensor_dimension3 = { 1, { 3 } };
const MODEL_SECTION(EI_MODEL_SECTION) ALIGN(16) float tensor_data4[20*93] = { 
  -0.035651519894599915, -0.15289288759231567, 0.15595099329948425, 0.40157139301300049, 0.18311399221420288, 0.36271345615386963, 0.25475847721099854, 0.061920043081045151, 0.23707827925682068, -0.10757535696029663, 0.06668516993522644, 0.20505283772945404, -0.099853970110416412, -0.06438291072845459, 0.063240192830562592, 0.24981483817100525, 0.11223702132701874, 0.17563380300998688, -0.039768345654010773, -0.075829543173313141, 0.19539399445056915, -0.038938075304031372, 0.21749551594257355, 0.037868626415729523, -0.25955638289451599, 0.082826294004917145, -0.12271628528833389, -0.067253582179546356, -0.14855301380157471, -0.17058759927749634, 0.06597108393907547, 0.058210179209709167, 0.3994787335395813, 0.010388333350419998, -0.14434757828712463, 0.10561191290616989, -0.1443602442741394, 0.15394888818264008, 0.03474218025803566, -0.17367115616798401, 0.060841456055641174, -0.0061622145585715771, -0.12388712167739868, -0.037646401673555374, -0.11091777682304382, 0.26248204708099365, 0.016783846542239189, 0.19834712147712708, -0.1630513072013855, -0.1176600381731987, 0.033890161663293839, -0.175630122423172, 0.18588167428970337, 0.060361448675394058, -0.18270927667617798, 0.12377256155014038, 0.23316556215286255, 0.15401746332645416, 0.25111272931098938, 0.12818743288516998, 0.07967367023229599, -0.143845334649086, 0.011026278138160706, -0.33454471826553345, -0.027800420299172401, -0.033406220376491547, 0.057572059333324432, 0.076269656419754028, 0.19321970641613007, -0.02457144670188427, 0.057348910719156265, -0.18918059766292572, -0.13528741896152496, -0.057039942592382431, -0.044163670390844345, -0.12066470086574554, 0.15939140319824219, 0.10837863385677338, -0.026924330741167068, 0.1894911527633667, 0.066117174923419952, -0.005022931843996048, -0.03496074303984642, 0.071069933474063873, -0.043144132941961288, 0.031825065612792969, -0.22605711221694946, -0.022877030074596405, -0.16838535666465759, -0.20941413938999176, 0.080284915864467621, -0.051919005811214447, -0.11546216905117035, 
  -0.23371890187263489, -0.10063017904758453, -0.069196738302707672, 0.17769591510295868, 0.10390500724315643, 0.020558468997478485, 0.071319706737995148, 0.066994532942771912, 0.10091926157474518, 0.20722191035747528, -0.16194003820419312, 0.070667006075382233, -0.012522775679826736, -0.026792477816343307, 0.060538440942764282, -0.21307836472988129, 0.088470026850700378, 0.019983323290944099, 0.15052998065948486, -0.22497577965259552, -0.13777662813663483, -0.11133823543787003, 0.10908389836549759, -0.10960651189088821, 0.076439023017883301, 0.040301065891981125, -0.11464222520589828, 0.095462523400783539, -0.12244776636362076, -0.22408296167850494, -0.11186765879392624, 0.17247170209884644, 0.38375192880630493, 0.036649826914072037, 0.15721327066421509, -0.143697589635849, -0.24232193827629089, -0.070171430706977844, 0.013921523466706276, -0.1453709602355957, -0.13838697969913483, -0.17086388170719147, 0.17135484516620636, 0.10655096918344498, 0.078614622354507446, -0.10821548849344254, 0.11985762417316437, -0.20490287244319916, -0.032243382185697556, -0.055083699524402618, -0.26874163746833801, -0.097170248627662659, -0.064284257590770721, -0.16552591323852539, -0.11304333806037903, -0.30535402894020081, -0.28603434562683105, 0.11136695742607117, 0.11504732817411423, -0.25076857209205627, -0.11788921058177948, 0.052858229726552963, -0.10552126914262772, -0.12942355871200562, -0.10464140772819519, -0.13183131814002991, 0.21642947196960449, -0.27375733852386475, 0.077563546597957611, -0.10784316062927246, 0.1580689400434494, -0.17570145428180695, 0.088407404720783234, -0.062048614025115967, -0.014853751286864281, 0.13735358417034149, -0.11948967725038528, -0.17727199196815491, -0.064039029181003571, 0.15503352880477905, -0.078399337828159332, -0.27660533785820007, -0.1645466536283493, -0.049713976681232452, 0.055344808846712112, -0.031659703701734543, -0.094651274383068085, -0.21464221179485321, -0.0052996100857853889, -0.10382508486509323, 0.022047940641641617, 0.024581259116530418, 0.15871784090995789, 
  0.11560766398906708, -0.027694467455148697, -0.073396995663642883, -0.077472254633903503, 0.32817688584327698, -0.045179903507232666, 0.22564156353473663, 0.2732907235622406, 0.30420926213264465, 0.065193735063076019, -0.058314014226198196, 0.12308060377836227, -0.12172677367925644, 0.13830679655075073, -0.1169162392616272, 0.16187167167663574, 0.080435536801815033, 0.15708613395690918, 0.042309924960136414, 0.12716479599475861, 0.20733694732189178, -0.22123004496097565, 0.10400115698575974, -0.19737033545970917, 0.034746192395687103, -0.044522024691104889, 0.22685281932353973, 0.15207093954086304, -0.10245473682880402, -0.20240449905395508, -0.1384911835193634, 0.1261342465877533, 0.18676964938640594, -0.074187666177749634, -0.057676542550325394, 0.096850275993347168, -0.19992935657501221, -0.0037359623238444328, 0.13821305334568024, -0.16877041757106781, 0.11969778686761856, 0.14709833264350891, -0.19723501801490784, -0.03138761967420578, 0.090370789170265198, -0.035341296344995499, -0.093671984970569611, -0.14937548339366913, 0.096576854586601257, -0.035190597176551819, 0.14321742951869965, -0.033288832753896713, -0.021380335092544556, 0.0098061515018343925, 0.11698316037654877, -0.17003057897090912, 0.057037975639104843, 0.099571108818054199, 0.096571020781993866, -0.014979183673858643, 0.18111127614974976, -0.12169594317674637, -0.07874172180891037, 0.10442744940519333, 0.0073742717504501343, 0.21592223644256592, 0.05915842205286026, -0.074821837246417999, -0.018042115494608879, -0.022128881886601448, 0.039731264114379883, -0.17088964581489563, 0.069986529648303986, 0.244074746966362, 0.012596353888511658, -0.1444716602563858, -0.14116731286048889, 0.17496268451213837, -0.061352621763944626, -0.085929147899150848, 0.14567779004573822, -0.072046563029289246, 0.13379587233066559, 0.042568642646074295, 0.071243919432163239, 0.091311544179916382, -0.0051073413342237473, 0.048189107328653336, -0.12738606333732605, 0.051692169159650803, -0.1092953085899353, 0.23592855036258698, 0.095343016088008881, 
  -0.16292434930801392, -0.42400836944580078, -0.11670771241188049, 0.048566125333309174, -0.042972788214683533, 0.020920192822813988, -0.092116057872772217, 0.093593820929527283, -0.0062263640575110912, -0.15357209742069244, 0.25435596704483032, 0.17979808151721954, 0.075264632701873779, 0.076224960386753082, 0.022952629253268242, -0.11421436071395874, -0.24894092977046967, -0.10993392020463943, 0.13473179936408997, 0.15909288823604584, -0.16198620200157166, 0.0083827674388885498, -0.17469042539596558, -0.1060805544257164, 0.23855723440647125, 0.25444415211677551, -0.034867983311414719, 0.12978865206241608, 0.26488205790519714, 0.25111547112464905, 0.033176187425851822, 0.029175100848078728, 0.456551194190979, -0.22789424657821655, -0.02631940133869648, -0.072906799614429474, 0.25014844536781311, -0.1212691143155098, -0.036858294159173965, 0.13629123568534851, -0.18221463263034821, 0.10432467609643936, -0.016993638128042221, 0.16301868855953217, 0.026635408401489258, -0.29200223088264465, -0.1432390958070755, -0.16124680638313293, 0.11011669039726257, 0.13938999176025391, -0.17225998640060425, -0.076184496283531189, -0.17844356596469879, -0.36870595812797546, -0.052072316408157349, -0.19086779654026031, -0.25118741393089294, -0.26855316758155823, -0.11571922153234482, 0.0080280983820557594, 0.1618456244468689, 0.059183631092309952, 0.17325271666049957, 0.41137370467185974, -0.15646694600582123, -0.17071698606014252, 0.14346049726009369, -0.20705349743366241, -0.15458233654499054, -0.21921883523464203, 0.11891480535268784, -0.13068400323390961, -0.13436885178089142, -0.17377041280269623, 0.037492856383323669, 0.066139183938503265, -0.06728055328130722, 0.21772307157516479, 0.070106707513332367, 0.20976507663726807, 0.034410625696182251, 0.13568519055843353, 0.14643344283103943, -0.080815047025680542, -0.053571950644254684, -0.19431494176387787, -0.030967805534601212, -0.098829686641693115, 0.1275414377450943, -0.10258398950099945, 0.080127827823162079, 0.064564317464828491, -0.1999475359916687, 
  0.12616115808486938, -0.086170420050621033, 0.0087128980085253716, 0.12559281289577484, -0.0054040960967540741, 0.031937088817358017, 0.33380374312400818, 0.10900089144706726, 0.0065899486653506756, 0.14956784248352051, -0.055942472070455551, 0.10499776154756546, -0.10157319903373718, -0.075192146003246307, -0.1084350198507309, 0.11221455782651901, 0.12129945307970047, 0.09334796667098999, -0.023570742458105087, -0.091146111488342285, -0.095222607254981995, 0.16523222625255585, -0.088375993072986603, -0.11322176456451416, -0.20578958094120026, -0.14149169623851776, 0.060763616114854813, 0.11269930005073547, -0.2818884551525116, -0.2057228684425354, 0.055193342268466949, -0.11020431667566299, 0.39598888158798218, -0.12723782658576965, 0.0073923603631556034, -0.12426533550024033, -0.10780920833349228, -0.24456189572811127, 0.096461668610572815, 0.095147944986820221, -0.03122289851307869, 0.072280809283256531, -0.17649842798709869, -0.071596488356590271, 0.20209340751171112, -0.081993348896503448, 0.24338893592357635, 0.10647016018629074, -0.088881075382232666, 0.16094471514225006, 0.1810293048620224, 0.15976172685623169, -0.11475083231925964, 0.013143947347998619, -0.10573401302099228, 0.14317087829113007, 0.12299177050590515, 0.11098971217870712, 0.17610527575016022, 0.077270284295082092, -0.22946251928806305, -0.27304008603096008, 0.19360968470573425, -0.095744706690311432, -0.034182380884885788, 0.20049981772899628, -0.037890870124101639, 0.18074189126491547, -0.26812773942947388, -0.095006354153156281, -0.23923526704311371, 0.018398147076368332, 0.11537713557481766, 0.035970278084278107, 0.052077997475862503, 0.063325397670269012, -0.11838652193546295, -0.10497646033763885, -0.15309314429759979, -0.13254931569099426, 0.12574294209480286, -0.26133632659912109, 0.07132711261510849, -0.20415732264518738, 0.032021403312683105, -0.17244185507297516, 0.00577499158680439, -0.20547129213809967, 0.10879871994256973, -0.12450865656137466, -0.12824411690235138, -0.033925231546163559, 0.014437601901590824, 
  -0.23314937949180603, 0.98147571086883545, 0.13645853102207184, -0.062034796923398972, -0.12690025568008423, -0.19192203879356384, -0.02148083783686161, 0.24163366854190826, -0.056092292070388794, -0.074012808501720428, -0.35051515698432922, -0.16204488277435303, -0.27331814169883728, 0.099926747381687164, 0.037057124078273773, 0.0018473735544830561, -0.17828240990638733, 0.031107319518923759, -0.1841454803943634, -0.026655798777937889, -0.20261658728122711, -0.13126930594444275, -0.038207586854696274, -0.12959334254264832, 0.033994261175394058, -0.2205641120672226, -0.10840805619955063, -0.045944176614284515, -0.22660051286220551, 0.023361416533589363, -0.27011832594871521, -0.03548252210021019, -0.13161666691303253, 0.10266274958848953, 0.12618762254714966, -0.07181965559720993, 0.039123993366956711, -0.33439421653747559, 0.069029137492179871, 0.13722237944602966, 0.069607831537723541, 0.037482615560293198, -0.2386847585439682, -0.14933522045612335, 0.1505112498998642, -0.20186829566955566, -0.11814176291227341, -0.18896040320396423, -0.040295906364917755, 0.026039151474833488, 0.15325568616390228, -0.0065212361514568329, 0.15088671445846558, -0.016029728576540947, 0.17760129272937775, 0.12345816940069199, 0.089175142347812653, 0.0084841158241033554, 0.13125884532928467, -0.053458895534276962, 0.03116653673350811, -0.24575234949588776, 0.11523710191249847, -0.20893439650535583, -0.10391604900360107, 0.0433964803814888, -0.042943567037582397, 0.14161746203899384, 0.15696266293525696, 0.062045305967330933, 0.17242977023124695, -0.14283062517642975, 0.1157001256942749, -0.20752783119678497, -0.26626506447792053, -0.18660302460193634, -0.067102931439876556, -0.074825495481491089, 0.10536046326160431, -0.038610860705375671, -0.21739815175533295, 0.04455932229757309, -0.15274888277053833, 0.13984020054340363, -0.059254191815853119, -0.21460117399692535, 0.026686804369091988, -0.054430175572633743, 0.1852259486913681, -0.07991945743560791, -0.012205244041979313, -0.024631008505821228, -0.17940030992031097, 
  0.089861579239368439, 0.204315185546875, -0.1298651397228241, -0.066887222230434418, -0.1791824996471405, -0.11839988082647324, -0.043126348406076431, 0.22893793880939484, -0.047077096998691559, -0.083171136677265167, -0.1488661915063858, -0.063832610845565796, 0.010629363358020782, 0.16516280174255371, 0.15346765518188477, 0.015291108749806881, -0.032711204141378403, -0.13812768459320068, 0.17736315727233887, 0.1475759744644165, -0.091885820031166077, 0.10745039582252502, -0.057550240308046341, 0.16828972101211548, -0.19982694089412689, -0.15357215702533722, 0.13757547736167908, -0.20411734282970428, 0.13419163227081299, 0.044281512498855591, 0.10920870304107666, -0.15601754188537598, -0.24654713273048401, 0.057337816804647446, -0.080950140953063965, 0.11978058516979218, -0.24371035397052765, -0.0049411491490900517, -0.12995384633541107, 0.1917320191860199, -0.084402173757553101, 0.029899867251515388, -0.027324613183736801, -0.0012881552102044225, 0.024625267833471298, -0.10352004319429398, 0.32231402397155762, -0.16594329476356506, -0.049877185374498367, -0.0761595219373703, -0.12850400805473328, 0.22557121515274048, -0.076701007783412933, 0.28611853718757629, 0.14515119791030884, -0.040644466876983643, 0.0549904964864254, 0.16454336047172546, 0.10772720724344254, -0.13366532325744629, -0.077823713421821594, 0.058910030871629715, 0.18114230036735535, -0.44483006000518799, 0.055738165974617004, 0.069850973784923553, -0.18463839590549469, 0.10297650843858719, -0.20881305634975433, -0.16359440982341766, -0.001688092015683651, 0.16274017095565796, -0.10739079117774963, 0.065887361764907837, 0.027114631608128548, 0.096628613770008087, 0.066544525325298309, 0.14018599689006805, 0.06038251519203186, -0.13942839205265045, 0.13035197556018829, 0.10016472637653351, -0.028807578608393669, 0.028210021555423737, -0.17044183611869812, -0.10589773952960968, 0.10092519223690033, 0.01831330917775631, -0.14591062068939209, -0.13774563372135162, -0.20242300629615784, 0.10533040016889572, -0.12685918807983398, 
  0.22154201567173004, 0.18059259653091431, -0.18828704953193665, 0.025566153228282928, 0.16138960421085358, -0.21965894103050232, -0.12695977091789246, -0.10549631714820862, -0.20204702019691467, 0.14469270408153534, -0.08249334990978241, 0.10559162497520447, -0.19646371901035309, -0.0029351294506341219, -0.29415327310562134, -0.29016751050949097, -0.15489685535430908, -0.13352006673812866, -0.24690160155296326, 0.17515186965465546, 0.15775305032730103, -0.17943736910820007, -0.18996578454971313, -0.033953014761209488, -0.010406386107206345, 0.25453788042068481, -0.10931361466646194, 0.0025120493955910206, -0.26852381229400635, -0.146014004945755, -0.030270896852016449, 0.23184767365455627, -0.37816590070724487, -0.41321399807929993, -0.085385806858539581, -0.099862277507781982, -0.030950147658586502, 0.080339252948760986, 0.11755738407373428, 0.0045664184726774693, 0.050138071179389954, 0.093118034303188324, 0.18863484263420105, 0.20277315378189087, 0.027919463813304901, -0.090601973235607147, -0.042853623628616333, -0.14774380624294281, -0.077058188617229462, 0.055838193744421005, -0.23540474474430084, -0.085145607590675354, -0.14784105122089386, -0.10596008598804474, -0.072497636079788208, -0.10706544667482376, -0.20940443873405457, 0.22038763761520386, 0.14896397292613983, -0.20973844826221466, -0.15877048671245575, -0.013297632336616516, 0.13852035999298096, 0.10160886496305466, 0.13997919857501984, -0.089308127760887146, -0.011863299645483494, -0.075378008186817169, -0.085675530135631561, 0.24606207013130188, -0.12008092552423477, 0.057462327182292938, -0.025867361575365067, 0.11099906265735626, 0.013992436230182648, 0.058478705585002899, -0.066160053014755249, 0.14776650071144104, -0.10052146762609482, 0.12934267520904541, 0.24426902830600739, -0.20739005506038666, 0.15289159119129181, 0.0093723125755786896, 0.076467543840408325, -0.1991971880197525, 0.11379315704107285, 0.11777838319540024, 0.1703026294708252, -0.061139039695262909, -0.038458723574876785, -0.17504249513149261, 0.051699031144380569, 
  0.11394503712654114, 0.94916427135467529, 0.31614413857460022, -0.23254747688770294, -0.24604181945323944, -0.052491109818220139, -0.1533275842666626, -0.22255223989486694, -0.031935174018144608, -0.090545594692230225, -0.0093833701685070992, 0.064799949526786804, 0.037205737084150314, -0.13414579629898071, -0.054389555007219315, -0.13470512628555298, 0.069781757891178131, -0.093344897031784058, 0.1416955441236496, 0.054190769791603088, 0.1966673880815506, 0.1999189555644989, 0.1703638881444931, 0.087046682834625244, 0.14114898443222046, 0.12532000243663788, 0.058539092540740967, -0.0028715736698359251, 0.1080300509929657, -0.44404715299606323, -0.088857933878898621, -0.2146352082490921, -0.35813122987747192, 0.13604705035686493, -0.1410449743270874, 0.25681397318840027, -0.29056745767593384, 0.051513012498617172, -0.21470831334590912, 0.031643979251384735, -0.11789719015359879, -0.1292891651391983, -0.3038661777973175, -0.1770489364862442, -0.16337072849273682, 0.015240306034684181, -0.10773291438817978, 0.013389716856181622, -0.082182750105857849, -0.045133896172046661, -0.2818029522895813, -0.19238990545272827, 0.21880176663398743, -0.18823985755443573, 0.19541071355342865, 0.16314026713371277, 0.054449807852506638, 0.25182944536209106, 0.04217950627207756, -0.088660500943660736, 0.07679343968629837, -0.068071819841861725, 0.16088777780532837, 0.21023403108119965, 0.053149409592151642, -0.29626631736755371, 0.16290222108364105, 0.19055117666721344, 0.16716268658638, -0.091980002820491791, -0.070849709212779999, -0.043551571667194366, 0.06306515634059906, -0.15808629989624023, -0.045207664370536804, -0.17906254529953003, -0.14026473462581635, -0.077886603772640228, -0.10196050256490707, 0.21868550777435303, -0.08715357631444931, -0.1057116761803627, -0.15205767750740051, -0.079143427312374115, 0.2175852507352829, 0.074217222630977631, 0.015831287950277328, 0.10745488852262497, 0.15680836141109467, 0.15049795806407928, 0.025467140600085258, -0.1833709329366684, -0.18242940306663513, 
  -0.19098713994026184, 0.10255032777786255, -0.19409845769405365, -0.014840632677078247, -0.13278032839298248, 0.1357039213180542, -0.20832037925720215, -0.0013962537050247192, -0.12516042590141296, -0.23014535009860992, -0.19522926211357117, -0.15694764256477356, -0.22941461205482483, -0.059369087219238281, -0.14595693349838257, 0.17883244156837463, -0.024829432368278503, 0.13369065523147583, 0.16114246845245361, -0.14584755897521973, -0.047554507851600647, 0.14444437623023987, 0.044611304998397827, 0.21316033601760864, 0.22960501909255981, 0.15422254800796509, 0.012132659554481506, 0.06763043999671936, -0.0063239634037017822, 0.10343509912490845, -0.10064780712127686, -0.06482398509979248, -0.16671669483184814, -0.0069694966077804565, 0.16046231985092163, 0.069755256175994873, 0.1546235978603363, 0.17285951972007751, -0.033088386058807373, 0.033311545848846436, 0.051584899425506592, 0.095731854438781738, -0.12406367808580399, 0.0551585853099823, -0.096868589520454407, -0.22868579626083374, 0.1475871205329895, 0.093652099370956421, 0.19628807902336121, -0.17795495688915253, 0.11783283948898315, 0.21667689085006714, -0.22033689916133881, -0.21570783853530884, -0.1363181471824646, 0.041581779718399048, 0.12808248400688171, 0.024335265159606934, -0.20803172886371613, 0.069333434104919434, -0.20388448238372803, -0.12535721063613892, -0.15864622592926025, 0.17269977927207947, 0.0026746243238449097, -0.053645431995391846, -0.21459962427616119, -0.065205857157707214, -0.15669399499893188, 0.095139354467391968, -0.14363029599189758, 0.15139958262443542, 0.19796997308731079, 0.0048900693655014038, -0.04105985164642334, -0.17316295206546783, 0.21028971672058105, -0.064846888184547424, -0.22742781043052673, 0.15733247995376587, 0.11487218737602234, 0.21966874599456787, -0.19403296709060669, -0.12927602231502533, -0.16262570023536682, 0.17463034391403198, -0.15684211254119873, -0.12197036296129227, 0.10937851667404175, 0.041848272085189819, 0.18112385272979736, 0.087593436241149902, -0.064075887203216553, 
  0.21151669323444366, -0.77330118417739868, 0.034015893936157227, -0.058369368314743042, -0.083941362798213959, 0.047059670090675354, 0.25103449821472168, 0.10184590518474579, -0.0056622205302119255, 0.19104774296283722, -0.047891702502965927, 0.18130448460578918, 0.13497613370418549, -0.16658750176429749, 0.14048421382904053, -0.15432251989841461, -0.044143039733171463, -0.016140257939696312, 0.19467297196388245, 0.055680360645055771, -0.22605842351913452, -0.0051022074185311794, -0.23324942588806152, 0.13505639135837555, 0.22752292454242706, 0.033821240067481995, 0.019799541682004929, -0.088235028088092804, 0.24378615617752075, 0.36477565765380859, -0.011313309893012047, -0.15282268822193146, 0.28061199188232422, -0.17681924998760223, 0.12170209735631943, -0.05170368030667305, 0.024585112929344177, -0.0041956864297389984, -0.14828377962112427, 0.062044326215982437, 0.10467199236154556, -0.0096852686256170273, 0.09922974556684494, 0.0087905935943126678, -0.17790654301643372, 0.1535641998052597, -0.0056570665910840034, -0.22773775458335876, 0.10786958038806915, 0.21315324306488037, -0.0064098630100488663, -0.18753713369369507, -0.094063110649585724, -0.046801995486021042, 0.042065151035785675, 0.15430711209774017, -0.19594626128673553, -0.20796185731887817, 0.015138223767280579, -0.007396085187792778, 0.055377360433340073, 0.036385234445333481, 0.15581569075584412, 0.062258370220661163, 0.050798412412405014, -0.15306706726551056, -0.18274977803230286, 0.09817042201757431, 0.10070359706878662, 0.062630161643028259, 0.17566193640232086, 0.023036157712340355, -0.052955295890569687, -0.095089711248874664, -0.005340066272765398, 0.20079644024372101, 0.060584470629692078, -0.14566962420940399, 0.10108101367950439, 0.22316049039363861, -0.097981750965118408, -0.15978294610977173, 0.066201061010360718, -0.15639318525791168, -0.10076671093702316, 0.15146408975124359, -0.082847654819488525, 0.056931361556053162, -0.089238695800304413, -0.11896372586488724, -0.0073517779819667339, 0.211248978972435, 0.10331085324287415, 
  -0.039929304271936417, 0.084936521947383881, 0.18880511820316315, -0.078071705996990204, -0.1777435839176178, -0.21643373370170593, 0.21434107422828674, -0.10250557214021683, 0.15503983199596405, -0.065859660506248474, 0.18317963182926178, 0.19741788506507874, 0.13276262581348419, 0.19542019069194794, -0.097144223749637604, 0.090986616909503937, -0.10729367285966873, -0.092817962169647217, 0.19328244030475616, -0.0064594419673085213, -0.064012445509433746, -0.061705965548753738, 0.20601703226566315, -0.004408995620906353, 0.057331837713718414, 0.077861383557319641, 0.13156181573867798, 0.098543941974639893, 0.2176060676574707, 0.074985116720199585, -0.031986523419618607, -0.059287060052156448, 0.0012367567978799343, -0.10460852086544037, 0.048573397099971771, -0.060410980135202408, -0.171041339635849, 0.044250581413507462, 0.046631507575511932, 0.10887883603572845, 0.087237603962421417, 0.15125164389610291, 0.18488219380378723, -0.048172421753406525, -0.13274310529232025, -0.083401292562484741, 0.038774948567152023, 0.093607783317565918, -0.20945081114768982, -0.032515522092580795, -0.18339236080646515, 0.14142574369907379, 0.057293180376291275, 0.064610928297042847, 0.19677147269248962, 0.11907752603292465, 0.10249892622232437, -0.05360044538974762, 0.013102401047945023, -0.19569435715675354, 0.16086992621421814, 0.10982287675142288, -0.020067671313881874, -0.050846993923187256, 0.14845144748687744, 0.14570863544940948, 0.1603163480758667, -0.06974513828754425, -0.059656478464603424, -0.065906263887882233, -0.18947729468345642, -0.0057907062582671642, -0.1418268233537674, -0.15056417882442474, 0.1695677638053894, 0.050291977822780609, 0.086060404777526855, 0.17042437195777893, 0.086568571627140045, 0.025165410712361336, 0.089368253946304321, 0.19348210096359253, -0.20362973213195801, -0.13583159446716309, -0.22708696126937866, -0.21720665693283081, -0.16089975833892822, 0.09395647794008255, -0.040840096771717072, 0.13412579894065857, 0.10029958933591843, -0.19336427748203278, -0.23587454855442047, 
  -0.078324541449546814, -0.2658219039440155, 0.066993445158004761, 0.33713766932487488, 0.56786870956420898, -0.01431554090231657, 0.066524848341941833, -0.016985587775707245, 0.015729831531643867, 0.29754185676574707, 0.16752076148986816, -0.025327771902084351, 0.18149472773075104, 0.22755616903305054, 0.0047325622290372849, 0.22973088920116425, 0.08208426833152771, 0.013565546832978725, 0.32249310612678528, 0.046541232615709305, 0.12704949080944061, 0.16139772534370422, -0.13335452973842621, 0.15105696022510529, 0.17182670533657074, -0.027369149029254913, 0.04393087700009346, -0.027251085266470909, 0.23345722258090973, -0.028339114040136337, -0.048628352582454681, 0.1077289953827858, -0.13101442158222198, 0.29047897458076477, 0.13811352849006653, 0.29067498445510864, 0.29478436708450317, -0.014619128778576851, -0.050955932587385178, -0.0033872881904244423, 0.10289549827575684, 0.19152161478996277, -0.046286936849355698, 0.030698899179697037, -0.078619018197059631, 0.046876754611730576, 0.3542531430721283, 0.28750357031822205, 0.099952824413776398, 0.36933097243309021, 0.29978996515274048, -0.089146092534065247, -0.11138547956943512, 0.13234733045101166, -0.091720424592494965, -0.14221875369548798, -0.056167528033256531, 0.19599545001983643, 0.094162672758102417, 0.20948158204555511, -0.025829147547483444, -0.12600432336330414, -0.15279766917228699, 0.42570772767066956, 0.17883223295211792, 0.20531962811946869, 0.16799095273017883, 0.21241340041160583, 0.14452691376209259, 0.28647252917289734, 0.12716665863990784, 0.018386604264378548, 0.2336149662733078, 0.27558478713035583, 0.18971462547779083, -0.097778864204883575, 0.037767518311738968, 0.30261734127998352, -0.070094019174575806, -0.068800248205661774, 0.16411201655864716, 0.22748494148254395, 0.32175835967063904, 0.27342060208320618, 0.33789700269699097, 0.30517089366912842, -0.079966381192207336, -0.0034930685069411993, 0.13725429773330688, 0.2672906219959259, -0.035814922302961349, 0.32915070652961731, 0.16429458558559418, 
  0.043370377272367477, -0.2307107001543045, -0.14316548407077789, 0.028009181842207909, 0.22877493500709534, 0.20730957388877869, -0.20669753849506378, 0.1990874856710434, -0.045165080577135086, 0.040141329169273376, 0.029347293078899384, 0.046565987169742584, 0.18778994679450989, 0.047129310667514801, -0.058254826813936234, -0.17710785567760468, -0.24449607729911804, -0.052186958491802216, -0.20068685710430145, -0.10044302046298981, -0.190728560090065, -0.19657038152217865, -0.027856968343257904, -0.090630829334259033, -0.11383394151926041, -0.24478864669799805, -0.17016430199146271, 0.18030495941638947, -0.053161505609750748, 0.0020539246033877134, 0.05455915629863739, -0.23328688740730286, -0.15079446136951447, -0.23700623214244843, -0.043990809470415115, 0.05384218692779541, 0.08922915905714035, -0.030000554397702217, 0.17155764997005463, -0.083401568233966827, 0.19845743477344513, 0.098043523728847504, 0.17374640703201294, -0.17902441322803497, 0.17701208591461182, -0.12659585475921631, -0.025543369352817535, 0.11430058628320694, 0.21393384039402008, 0.12466491013765335, 0.060031305998563766, 0.092243529856204987, -0.1835189163684845, -0.1241634264588356, 0.1923653781414032, -0.10434106737375259, 0.024287654086947441, 0.14346784353256226, 0.099800541996955872, -0.054880179464817047, -0.012903379276394844, -0.092947512865066528, -0.037197563797235489, -0.17991769313812256, 0.1369011402130127, 0.16011534631252289, 0.17374444007873535, 0.16742508113384247, 0.032542053610086441, 0.20453281700611115, -0.20240378379821777, -0.055628072470426559, 0.13239015638828278, -0.055796395987272263, 0.095668405294418335, -0.17830182611942291, -0.13500577211380005, -0.11687187850475311, 0.095359377562999725, -0.14463497698307037, -0.10484599322080612, 0.089669488370418549, -0.079624548554420471, -0.089757777750492096, 0.1118975430727005, 0.02360881119966507, 0.15286882221698761, 0.18261416256427765, -0.02421291172504425, -0.23663794994354248, 0.0035852883011102676, 0.036978032439947128, -0.16624298691749573, 
  0.21225658059120178, -0.10639073699712753, -0.125412717461586, 0.17074963450431824, 0.048013687133789062, -0.16123154759407043, -0.13372859358787537, 0.047242522239685059, 0.074280969798564911, 0.042328283190727234, 0.18792983889579773, -0.25572872161865234, -0.22189153730869293, 0.20143698155879974, -0.24195089936256409, -0.10525418072938919, -0.22690238058567047, -0.00039768216083757579, 0.095866523683071136, -0.21791955828666687, 0.1558300256729126, 0.18175424635410309, -0.14680285751819611, 0.13135486841201782, -0.24950136244297028, -0.17180792987346649, -0.075059220194816589, -0.22346937656402588, 0.1481107622385025, -0.072998322546482086, 0.22600638866424561, -0.23101718723773956, -0.31488943099975586, 0.30546355247497559, -0.12817420065402985, -0.23193040490150452, -0.14818741381168365, 0.076799802482128143, 0.20164279639720917, -0.19488406181335449, -0.20803187787532806, 0.19220016896724701, -0.21985282003879547, 0.1552206426858902, -0.024850726127624512, 0.15208542346954346, -0.078654244542121887, -0.13539406657218933, -0.2022741287946701, -0.090317606925964355, -0.026517223566770554, 0.10733341425657272, 0.079149015247821808, -0.041572354733943939, -0.1509542316198349, -0.13817523419857025, 0.22640269994735718, -0.057754773646593094, 0.20991535484790802, -0.11672324687242508, 0.037730425596237183, 0.1459377259016037, -0.12317664921283722, 0.24478113651275635, -0.015955293551087379, 0.22400252521038055, 0.20302559435367584, 0.10447243601083755, -0.079184442758560181, 0.082039505243301392, -0.013641075231134892, -0.17590343952178955, 0.16793309152126312, -0.12978054583072662, 0.15977868437767029, 0.071547716856002808, -0.13487043976783752, 0.019333664327859879, -0.042534515261650085, -0.017395090311765671, 0.083976142108440399, -0.012457347474992275, -0.19130668044090271, -0.14338225126266479, 0.004318547435104847, -0.21922056376934052, 0.13526871800422668, -0.018462710082530975, -0.22666648030281067, 0.0078720441088080406, -0.13986013829708099, 0.036576155573129654, -0.070482201874256134, 
  0.028350934386253357, -0.14034624397754669, -0.057212416082620621, -0.28930953145027161, -0.19007071852684021, -0.016525924205780029, -0.046705309301614761, -0.014696407131850719, 0.055051788687705994, 0.17495901882648468, 0.11938219517469406, 0.1408727616071701, -0.12290696054697037, 0.083478882908821106, 0.067353293299674988, 0.14656032621860504, 0.0012842424912378192, 0.1366811990737915, 0.14713552594184875, 0.17474256455898285, -0.20552776753902435, 0.14309220016002655, -0.20536234974861145, 0.10547623783349991, 0.17915596067905426, 0.15134820342063904, 0.016976859420537949, -0.044036976993083954, 0.031177511438727379, -0.083925016224384308, 0.12504291534423828, -0.092330805957317352, 0.2505420446395874, 0.083386674523353577, -0.11919719725847244, 0.055891919881105423, 0.053507257252931595, -0.098607011139392853, 0.018789930269122124, 0.2322222888469696, 0.18302272260189056, -0.089787513017654419, 0.089294753968715668, -0.14140889048576355, 0.037519782781600952, -0.21128188073635101, -0.28081807494163513, -0.0066656460985541344, -0.13161180913448334, 0.21561819314956665, 0.10404940694570541, -0.031311932951211929, 0.075308136641979218, 0.092662326991558075, 0.050863064825534821, -0.08813215047121048, 0.18779090046882629, 0.13878732919692993, -0.1295764297246933, 0.26463666558265686, -0.033087737858295441, -0.1535850316286087, 0.031736981123685837, 0.18846617639064789, 0.099406979978084564, 0.083704225718975067, 0.007642943412065506, -0.084010995924472809, 0.071273103356361389, 0.19783015549182892, -0.14611217379570007, 0.23724512755870819, 0.23522695899009705, 0.24824216961860657, 0.14433184266090393, 0.21428225934505463, -0.045130886137485504, 0.10278267413377762, 0.24324342608451843, 0.13582932949066162, -0.10890012979507446, -0.083558298647403717, 0.081441417336463928, 0.26581314206123352, 0.27984917163848877, 0.2264045923948288, 0.073065854609012604, 0.16946046054363251, 0.18116146326065063, 0.27923727035522461, 0.043586712330579758, 0.27424675226211548, 0.094569176435470581, 
  0.003068089485168457, -0.14692401885986328, -0.090861618518829346, -0.016549333930015564, 0.1852165162563324, -0.054614484310150146, -0.07691703736782074, -0.16534735262393951, 0.083164364099502563, -0.20134127140045166, -0.19976888597011566, -0.072190731763839722, 0.05303153395652771, 0.11139783263206482, -0.079372286796569824, 0.083377093076705933, -0.18055656552314758, -0.113923579454422, 0.099353998899459839, -0.074065014719963074, -0.19200596213340759, -0.13196383416652679, 0.08639681339263916, -0.097560867667198181, 0.094882667064666748, -0.075287118554115295, -0.040620237588882446, 0.17482385039329529, -0.16032800078392029, 0.1647198498249054, 0.082699358463287354, -0.0018710345029830933, 0.17758578062057495, -0.13717056810855865, -0.068609133362770081, -0.12098103016614914, 0.067557066679000854, -0.1961522251367569, -0.10219761729240417, 0.0080377161502838135, -0.00092999637126922607, -0.038524612784385681, 0.039098262786865234, 0.16633513569831848, -0.025764539837837219, -0.18315240740776062, 0.17780223488807678, -0.2097288966178894, -0.017328083515167236, -0.09073173999786377, 0.017547294497489929, -0.028991788625717163, -0.042181968688964844, -0.16780611872673035, -0.032043576240539551, -0.21754498779773712, -0.033799454569816589, -0.047397658228874207, 0.14790141582489014, -0.15999321639537811, -0.1479421854019165, 0.19687187671661377, -0.1330268383026123, 0.013618364930152893, -0.16121280193328857, 0.10399851202964783, 0.0037833303213119507, -0.085669443011283875, -0.0049160569906234741, 0.217010498046875, -0.18861307203769684, -0.046658575534820557, -0.11825102567672729, 0.1966206431388855, 0.17073863744735718, 0.11973792314529419, -0.10651787370443344, 0.061582118272781372, -0.13695251941680908, 0.044668763875961304, 0.048985064029693604, 0.20355474948883057, -0.22962534427642822, -0.074825629591941833, -0.015040561556816101, 0.15282011032104492, 0.010727614164352417, -0.1408589780330658, 0.21506562829017639, -0.05500224232673645, 0.027674257755279541, 0.22161400318145752, 0.21229439973831177, 
  0.050796795636415482, 0.054071027785539627, 0.13604064285755157, 0.06141304224729538, 0.22502440214157104, -0.27647924423217773, -0.18679818511009216, 0.065512731671333313, 0.016457870602607727, 0.032338250428438187, 0.021994363516569138, 0.21336433291435242, -0.14398522675037384, 0.094721190631389618, -0.28276288509368896, -0.14973865449428558, -0.24135906994342804, 0.077819652855396271, 0.21168038249015808, -0.10700822621583939, 0.094371668994426727, -0.15195484459400177, -0.23176515102386475, 0.19567297399044037, -0.022056156769394875, -0.069518424570560455, -0.080848030745983124, 0.068789996206760406, -0.0063909729942679405, -0.18593451380729675, -0.045509245246648788, -0.11358393728733063, -0.10690806806087494, -0.16783995926380157, -0.022838616743683815, 0.3327879011631012, 0.24160957336425781, -0.040710590779781342, 0.11249380558729172, -0.10857324302196503, -0.12801246345043182, -0.030589213594794273, 0.20811712741851807, -0.071182914078235626, -0.044939499348402023, -0.25379842519760132, -0.097388602793216705, 0.28514242172241211, -0.11658287793397903, 0.095876216888427734, -0.16134916245937347, -0.16862586140632629, 0.071997180581092834, -0.064040414988994598, 0.0085825454443693161, -0.14083930850028992, 0.13973279297351837, -0.13575476408004761, -0.026237612590193748, -0.062555760145187378, 0.016079986467957497, -0.1788269579410553, 0.085102863609790802, 0.58830100297927856, -0.010505485348403454, 0.03737964853644371, -0.062229067087173462, 0.029457025229930878, 0.098352327942848206, -0.040557455271482468, 0.19889512658119202, -0.059825174510478973, 0.1696024090051651, 0.23183561861515045, 0.13005222380161285, 0.079568848013877869, -0.16052058339118958, -0.146233931183815, 0.19174867868423462, -0.15239234268665314, -0.16094504296779633, -0.18444763123989105, -0.17789278924465179, 0.063366875052452087, 0.14317582547664642, 0.23651428520679474, -0.064458094537258148, 0.076709821820259094, 0.07492094486951828, 0.12474152445793152, 0.020144982263445854, 0.24267578125, -0.1895604282617569, 
  -0.19264787435531616, -0.058593511581420898, 0.12165763974189758, -0.22347663342952728, 0.11048141121864319, 0.019373282790184021, -0.14900124073028564, -0.021601423621177673, -0.0065042674541473389, -0.080506548285484314, -0.2115539014339447, -0.087632894515991211, -0.19565261900424957, -0.16204488277435303, -0.17087140679359436, -0.11944928765296936, 0.014489024877548218, -0.13533094525337219, -0.12522964179515839, 0.087742716073989868, -0.11387907713651657, 0.18966525793075562, -0.12469695508480072, 0.17999637126922607, -0.099308252334594727, -0.19955554604530334, -0.0090371519327163696, -0.065211132168769836, -0.20436590909957886, -0.15843279659748077, 0.10568720102310181, -0.099175900220870972, -0.14521333575248718, -0.2061360776424408, 0.22585919499397278, 0.18080759048461914, 0.063475251197814941, -0.15415331721305847, -0.17658469080924988, -0.076677113771438599, -0.16645315289497375, 0.046089470386505127, -0.13726352155208588, 0.11795222759246826, 0.0061011910438537598, -0.035679072141647339, 0.22983285784721375, 0.051929086446762085, -0.18098832666873932, -0.21070608496665955, 0.012584701180458069, -0.19535501301288605, 0.10244956612586975, -0.1313977986574173, 0.14523470401763916, -0.16173377633094788, -0.14917291700839996, -0.14413534104824066, -0.062639296054840088, 0.16380864381790161, -0.071992069482803345, -0.1197952926158905, -0.15097710490226746, 0.17936155200004578, 0.11295738816261292, -0.11936501413583755, 0.19956484436988831, -0.18560920655727386, 0.011833310127258301, 0.20116272568702698, 0.14208754897117615, 0.12470641732215881, 0.17255017161369324, -0.10442906618118286, -0.21593886613845825, 0.069183886051177979, 0.20484119653701782, 0.0411720871925354, -0.066691279411315918, 0.078615516424179077, 0.064602196216583252, 0.095804035663604736, 0.19889897108078003, -0.0066909044981002808, 0.11013409495353699, 0.040419220924377441, 0.19370466470718384, 0.022721737623214722, -0.012176781892776489, -0.18327371776103973, -0.21786539256572723, 0.18056809902191162, 0.14458227157592773, 
  0.016235619783401489, 0.35524848103523254, 0.17721961438655853, -0.27465018630027771, -0.29271873831748962, -0.14211377501487732, -0.012293597683310509, -0.10352261364459991, 0.10660646110773087, 0.13709388673305511, -0.26479035615921021, 0.14555887877941132, 0.19828477501869202, 0.036694988608360291, 0.064719744026660919, -0.027603095397353172, 0.071867585182189941, -0.18809649348258972, -0.18828238546848297, 0.012358048930764198, -0.0014556902460753918, -0.15377864241600037, 0.24474439024925232, -0.061472978442907333, 0.062128379940986633, 0.083391197025775909, -0.045949473977088928, -0.066854916512966156, 0.15099398791790009, 0.23657535016536713, -0.1200355663895607, 0.087694309651851654, 0.27667948603630066, 0.0064521981403231621, -0.21519799530506134, -0.34754350781440735, -0.19172511994838715, 0.03591117262840271, -0.0053842822089791298, -0.03087884932756424, -0.11902689933776855, -0.16523925960063934, 0.087753169238567352, 0.13505195081233978, -0.015386487357318401, -0.17198315262794495, -0.20877459645271301, 0.048711176961660385, 0.0036340162623673677, -0.0057795741595327854, 0.01822868175804615, 0.12979704141616821, -0.18452724814414978, 0.10601881891489029, 0.19523032009601593, -0.06918652355670929, 0.15174929797649384, -0.20075124502182007, -0.20186756551265717, 0.18717150390148163, -0.12628819048404694, 0.20137809216976166, -0.14697633683681488, 0.087480016052722931, -0.21099795401096344, 0.12947385013103485, 0.0081355646252632141, -0.1674623042345047, -0.1756388396024704, -0.15097545087337494, -0.22458472847938538, 0.13878150284290314, -0.077743582427501678, -0.037655901163816452, -0.057343721389770508, 0.070776984095573425, -0.19605624675750732, -0.23261518776416779, -0.20857393741607666, -0.11402329057455063, 0.16787724196910858, -0.024910865351557732, -0.017961869016289711, -0.20489294826984406, -0.053687755018472672, 0.068195238709449768, 0.19266034662723541, -0.033222652971744537, 0.056821689009666443, -0.0088454214856028557, -0.22089853882789612, 0.028081772848963737, -0.16333377361297607, 
};
const TfArray<2, int> tensor_dimension4 = { 2, { 20,93 } };
const MODEL_SECTION(EI_MODEL_SECTION) ALIGN(16) float tensor_data5[10*20] = { 
  0.17404946684837341, -0.29567396640777588, -0.25417599081993103, 0.079603157937526703, 0.33888465166091919, 0.098346173763275146, 0.40466111898422241, -0.49679982662200928, -0.048471204936504364, -0.19483354687690735, 0.036624237895011902, 0.065525814890861511, 0.27554917335510254, 0.42125102877616882, 0.19263739883899689, -0.34126922488212585, 0.00019213557243347168, -0.10442376136779785, -0.26989120244979858, 0.02580198273062706, 
  -0.21513541042804718, -0.43652644753456116, 0.25989925861358643, 0.25670373439788818, 0.20556908845901489, -0.15646842122077942, -0.19914223253726959, -0.36983609199523926, -0.35554879903793335, 0.069873809814453125, -0.20073221623897552, -0.2023371160030365, 0.2409820556640625, 0.084498703479766846, 0.26755255460739136, 0.3430597186088562, -0.19190970063209534, 0.13136303424835205, -0.1693665087223053, -0.11774033308029175, 
  -0.1135583370923996, -0.30718508362770081, -0.045393612235784531, 0.32342812418937683, -0.20812232792377472, -0.28654143214225769, -0.15106651186943054, 0.031598310917615891, -0.13402073085308075, -0.043710947036743164, 0.14050108194351196, 0.19389015436172485, 0.098931007087230682, -0.33017858862876892, -0.059590548276901245, -0.0066880639642477036, 0.32243669033050537, -0.28749775886535645, -0.38322222232818604, -0.40790548920631409, 
  0.20839744806289673, 0.036288507282733917, 0.34747779369354248, -0.0012430689530447125, -0.25985494256019592, 0.28397500514984131, -0.23162226378917694, -0.18563388288021088, -0.11634260416030884, 0.28100210428237915, 0.38034769892692566, 0.18503981828689575, -0.28564080595970154, -0.35384860634803772, -0.018703663721680641, -0.15791715681552887, -0.10153305530548096, -0.62389874458312988, 0.40465575456619263, 0.36891540884971619, 
  -0.17818379402160645, 0.22386848926544189, -0.37520819902420044, -0.17189335823059082, -0.32421711087226868, 0.26232478022575378, -0.13781583309173584, 0.094790011644363403, -0.35277539491653442, 0.23458927869796753, 0.34554034471511841, 0.21861153841018677, -0.053174391388893127, 0.18902230262756348, 0.094670414924621582, -0.36372420191764832, -0.18604752421379089, 0.38466089963912964, 0.27800458669662476, 0.24543526768684387, 
  -0.3496965765953064, 0.31625625491142273, -0.2572532594203949, 0.23137810826301575, -0.078708812594413757, -0.45444467663764954, 0.0078043588437139988, 0.30010053515434265, -0.46280759572982788, -0.17979496717453003, 0.33587011694908142, 0.22529292106628418, -0.38691264390945435, 0.23633381724357605, -0.079588614404201508, -0.29696011543273926, -0.14094427227973938, 0.1534820944070816, -0.25955837965011597, 0.041131235659122467, 
  0.40339475870132446, 0.18366540968418121, -0.15282954275608063, -0.25585660338401794, 0.30919864773750305, 0.34863656759262085, 0.045414268970489502, -0.1291307657957077, -0.10477570444345474, 0.0096309185028076172, 0.22348479926586151, 0.14631837606430054, -0.49765923619270325, -0.16747762262821198, 0.019403582438826561, -0.074939414858818054, 0.22909986972808838, -0.069618441164493561, -0.061746180057525635, -0.47227126359939575, 
  -0.066194422543048859, 0.36921340227127075, 0.16329722106456757, 0.18944604694843292, -0.032807257026433945, 0.27309885621070862, 0.33278408646583557, -0.36502629518508911, 0.43476760387420654, -0.11473512649536133, -0.19867128133773804, 0.43653687834739685, 0.29099699854850769, -0.099376954138278961, -0.15008814632892609, 0.18891280889511108, 0.32872921228408813, 0.010197862982749939, 0.051685571670532227, 0.32511094212532043, 
  0.21479734778404236, 0.065423853695392609, 0.17426639795303345, 0.13056297600269318, 0.32525926828384399, 0.083919860422611237, -0.42019039392471313, -0.1009271964430809, -0.11339607089757919, 0.047066181898117065, 0.36079651117324829, 0.091973073780536652, 0.055557906627655029, -0.39765462279319763, -0.16814561188220978, 0.37161910533905029, -0.33315008878707886, 0.28027790784835815, -0.18146216869354248, -0.19931325316429138, 
  0.088379226624965668, -0.22977860271930695, -0.093099482357501984, -0.045955903828144073, 0.28693100810050964, 0.38039273023605347, -0.0843023881316185, -0.0031018524896353483, 0.29118049144744873, -0.35648933053016663, -0.24883380532264709, 0.17644833028316498, -0.26037818193435669, -0.19874612987041473, 0.29785001277923584, -0.074530325829982758, -0.070471644401550293, 0.32208606600761414, 0.010248482227325439, 0.28530341386795044, 
};
const TfArray<2, int> tensor_dimension5 = { 2, { 10,20 } };
const MODEL_SECTION(EI_MODEL_SECTION) ALIGN(16) float tensor_data6[3*10] = { 
  0.37835332751274109, 0.076462864875793457, 0.41100406646728516, -0.52326470613479614, -0.24954944849014282, 0.35209250450134277, 0.45376133918762207, -0.52147239446640015, -0.64240175485610962, 0.47836127877235413, 
  0.40808978676795959, 0.38633811473846436, 0.083997868001461029, -0.40233650803565979, -0.645671546459198, 0.031950101256370544, 0.19744992256164551, -0.50026130676269531, 0.052353937178850174, -0.11079009622335434, 
  -0.58165943622589111, -0.12115943431854248, 0.66648286581039429, -0.012539311312139034, -0.55404728651046753, -0.56533104181289673, -0.52527707815170288, -0.36405199766159058, 0.60574668645858765, 0.14014662802219391, 
};
const TfArray<2, int> tensor_dimension6 = { 2, { 3,10 } };
const TfArray<2, int> tensor_dimension7 = { 2, { 1,20 } };
const TfArray<2, int> tensor_dimension8 = { 2, { 1,10 } };
const TfArray<2, int> tensor_dimension9 = { 2, { 1,3 } };
const TfLiteFullyConnectedParams opdata0 = { kTfLiteActRelu, kTfLiteFullyConnectedWeightsFormatDefault, false, false };
const TfArray<3, int> inputs0 = { 3, { 0,4,2 } };
const TfArray<1, int> outputs0 = { 1, { 7 } };
const TfLiteFullyConnectedParams opdata1 = { kTfLiteActRelu, kTfLiteFullyConnectedWeightsFormatDefault, false, false };
const TfArray<3, int> inputs1 = { 3, { 7,5,1 } };
const TfArray<1, int> outputs1 = { 1, { 8 } };
const TfLiteFullyConnectedParams opdata2 = { kTfLiteActNone, kTfLiteFullyConnectedWeightsFormatDefault, false, false };
const TfArray<3, int> inputs2 = { 3, { 8,6,3 } };
const TfArray<1, int> outputs2 = { 1, { 9 } };
const TfLiteSoftmaxParams opdata3 = { 1 };
const TfArray<1, int> inputs3 = { 1, { 9 } };
const TfArray<1, int> outputs3 = { 1, { 10 } };
};

TensorInfo_t tensorData[] = {
{ kTfLiteArenaRw, (int32_t*)(tensor_arena + 0), (TfLiteIntArray*)&g0::tensor_dimension0, 372, },
{ kTfLiteMmapRo, (int32_t*)g0::tensor_data1, (TfLiteIntArray*)&g0::tensor_dimension1, 40, },
{ kTfLiteMmapRo, (int32_t*)g0::tensor_data2, (TfLiteIntArray*)&g0::tensor_dimension2, 80, },
{ kTfLiteMmapRo, (int32_t*)g0::tensor_data3, (TfLiteIntArray*)&g0::tensor_dimension3, 12, },
{ kTfLiteMmapRo, (int32_t*)g0::tensor_data4, (TfLiteIntArray*)&g0::tensor_dimension4, 7440, },
{ kTfLiteMmapRo, (int32_t*)g0::tensor_data5, (TfLiteIntArray*)&g0::tensor_dimension5, 800, },
{ kTfLiteMmapRo, (int32_t*)g0::tensor_data6, (TfLiteIntArray*)&g0::tensor_dimension6, 120, },
{ kTfLiteArenaRw, (int32_t*)(tensor_arena + 384), (TfLiteIntArray*)&g0::tensor_dimension7, 80, },
{ kTfLiteArenaRw, (int32_t*)(tensor_arena + 0), (TfLiteIntArray*)&g0::tensor_dimension8, 40, },
{ kTfLiteArenaRw, (int32_t*)(tensor_arena + 48), (TfLiteIntArray*)&g0::tensor_dimension9, 12, },
{ kTfLiteArenaRw, (int32_t*)(tensor_arena + 0), (TfLiteIntArray*)&g0::tensor_dimension9, 12, },
};

#ifndef TF_LITE_STATIC_MEMORY
TfLiteNode tflNodes[4] = {
{ (TfLiteIntArray*)&g0::inputs0, (TfLiteIntArray*)&g0::outputs0, (TfLiteIntArray*)&g0::inputs0, nullptr, nullptr, const_cast<void*>(static_cast<const void*>(&g0::opdata0)), nullptr, 0, },
{ (TfLiteIntArray*)&g0::inputs1, (TfLiteIntArray*)&g0::outputs1, (TfLiteIntArray*)&g0::inputs1, nullptr, nullptr, const_cast<void*>(static_cast<const void*>(&g0::opdata1)), nullptr, 0, },
{ (TfLiteIntArray*)&g0::inputs2, (TfLiteIntArray*)&g0::outputs2, (TfLiteIntArray*)&g0::inputs2, nullptr, nullptr, const_cast<void*>(static_cast<const void*>(&g0::opdata2)), nullptr, 0, },
{ (TfLiteIntArray*)&g0::inputs3, (TfLiteIntArray*)&g0::outputs3, (TfLiteIntArray*)&g0::inputs3, nullptr, nullptr, const_cast<void*>(static_cast<const void*>(&g0::opdata3)), nullptr, 0, },
};
#else
TfLiteNode tflNodes[4] = {
{ (TfLiteIntArray*)&g0::inputs0, (TfLiteIntArray*)&g0::outputs0, (TfLiteIntArray*)&g0::inputs0, nullptr, const_cast<void*>(static_cast<const void*>(&g0::opdata0)), nullptr, 0, },
{ (TfLiteIntArray*)&g0::inputs1, (TfLiteIntArray*)&g0::outputs1, (TfLiteIntArray*)&g0::inputs1, nullptr, const_cast<void*>(static_cast<const void*>(&g0::opdata1)), nullptr, 0, },
{ (TfLiteIntArray*)&g0::inputs2, (TfLiteIntArray*)&g0::outputs2, (TfLiteIntArray*)&g0::inputs2, nullptr, const_cast<void*>(static_cast<const void*>(&g0::opdata2)), nullptr, 0, },
{ (TfLiteIntArray*)&g0::inputs3, (TfLiteIntArray*)&g0::outputs3, (TfLiteIntArray*)&g0::inputs3, nullptr, const_cast<void*>(static_cast<const void*>(&g0::opdata3)), nullptr, 0, },
};
#endif

used_operators_e used_ops[] =
{OP_FULLY_CONNECTED, OP_FULLY_CONNECTED, OP_FULLY_CONNECTED, OP_SOFTMAX, };


// Indices into tflTensors and tflNodes for subgraphs
const size_t tflTensors_subgraph_index[] = {0, 11, };
const size_t tflNodes_subgraph_index[] = {0, 4, };

// Input/output tensors
static const int in_tensor_indices[] = {
  0, 
};

static const int out_tensor_indices[] = {
  10, 
};


size_t current_subgraph_index = 0;

static void init_tflite_tensor(size_t i, TfLiteTensor *tensor) {
  tensor->type = kTfLiteFloat32;
  tensor->is_variable = false;

#if defined(EI_CLASSIFIER_ALLOCATION_HEAP)
  tensor->allocation_type = tensorData[i].allocation_type;
#else
  tensor->allocation_type = (tensor_arena <= tensorData[i].data && tensorData[i].data < tensor_arena + kTensorArenaSize) ? kTfLiteArenaRw : kTfLiteMmapRo;
#endif
  tensor->bytes = tensorData[i].bytes;
  tensor->dims = tensorData[i].dims;

#if defined(EI_CLASSIFIER_ALLOCATION_HEAP)
  if(tensor->allocation_type == kTfLiteArenaRw){
    uint8_t* start = (uint8_t*) ((uintptr_t)tensorData[i].data + (uintptr_t) tensor_arena);

    tensor->data.data =  start;
  }
  else {
      tensor->data.data = tensorData[i].data;
  }
#else
  tensor->data.data = tensorData[i].data;
#endif // EI_CLASSIFIER_ALLOCATION_HEAP
  tensor->quantization.type = kTfLiteNoQuantization;

}

static void init_tflite_eval_tensor(int i, TfLiteEvalTensor *tensor) {

  tensor->type = kTfLiteFloat32;

  tensor->dims = tensorData[i].dims;

#if defined(EI_CLASSIFIER_ALLOCATION_HEAP)
  auto allocation_type = tensorData[i].allocation_type;
  if(allocation_type == kTfLiteArenaRw) {
    uint8_t* start = (uint8_t*) ((uintptr_t)tensorData[i].data + (uintptr_t) tensor_arena);

    tensor->data.data =  start;
  }
  else {
    tensor->data.data = tensorData[i].data;
  }
#else
  tensor->data.data = tensorData[i].data;
#endif // EI_CLASSIFIER_ALLOCATION_HEAP
}

static void* overflow_buffers[EI_MAX_OVERFLOW_BUFFER_COUNT];
static size_t overflow_buffers_ix = 0;
static void * AllocatePersistentBufferImpl(struct TfLiteContext* ctx,
                                       size_t bytes) {
  void *ptr;
  uint32_t align_bytes = (bytes % 16) ? 16 - (bytes % 16) : 0;

  if (current_location - (bytes + align_bytes) < tensor_boundary) {
    if (overflow_buffers_ix > EI_MAX_OVERFLOW_BUFFER_COUNT - 1) {
      ei_printf("ERR: Failed to allocate persistent buffer of size %d, does not fit in tensor arena and reached EI_MAX_OVERFLOW_BUFFER_COUNT\n",
        (int)bytes);
      return NULL;
    }

    // OK, this will look super weird, but.... we have CMSIS-NN buffers which
    // we cannot calculate beforehand easily.
    ptr = ei_calloc(bytes, 1);
    if (ptr == NULL) {
      ei_printf("ERR: Failed to allocate persistent buffer of size %d\n", (int)bytes);
      return NULL;
    }
    overflow_buffers[overflow_buffers_ix++] = ptr;
    return ptr;
  }

  current_location -= bytes;

  // align to the left aligned boundary of 16 bytes
  current_location -= 15; // for alignment
  current_location += 16 - ((uintptr_t)(current_location) & 15);

  ptr = current_location;
  memset(ptr, 0, bytes);

  return ptr;
}

typedef struct {
  size_t bytes;
  void *ptr;
} scratch_buffer_t;

static scratch_buffer_t scratch_buffers[EI_MAX_SCRATCH_BUFFER_COUNT];
static size_t scratch_buffers_ix = 0;

static TfLiteStatus RequestScratchBufferInArenaImpl(struct TfLiteContext* ctx, size_t bytes,
                                                int* buffer_idx) {
  if (scratch_buffers_ix > EI_MAX_SCRATCH_BUFFER_COUNT - 1) {
    ei_printf("ERR: Failed to allocate scratch buffer of size %d, reached EI_MAX_SCRATCH_BUFFER_COUNT\n",
      (int)bytes);
    return kTfLiteError;
  }

  scratch_buffer_t b;
  b.bytes = bytes;

  b.ptr = AllocatePersistentBufferImpl(ctx, b.bytes);
  if (!b.ptr) {
    ei_printf("ERR: Failed to allocate scratch buffer of size %d\n",
      (int)bytes);
    return kTfLiteError;
  }

  scratch_buffers[scratch_buffers_ix] = b;
  *buffer_idx = scratch_buffers_ix;

  scratch_buffers_ix++;

  return kTfLiteOk;
}

static void* GetScratchBufferImpl(struct TfLiteContext* ctx, int buffer_idx) {
  if (buffer_idx > (int)scratch_buffers_ix) {
    return NULL;
  }
  return scratch_buffers[buffer_idx].ptr;
}

static const uint16_t TENSOR_IX_UNUSED = 0x7FFF;

static void ResetTensors() {
  for (size_t ix = 0; ix < MAX_TFL_TENSOR_COUNT; ix++) {
    tflTensors[ix].index = TENSOR_IX_UNUSED;
  }
  for (size_t ix = 0; ix < MAX_TFL_EVAL_COUNT; ix++) {
    tflEvalTensors[ix].index = TENSOR_IX_UNUSED;
  }
}

static TfLiteTensor* GetTensorImpl(const struct TfLiteContext* context,
                               int tensor_idx) {

  tensor_idx = tflTensors_subgraph_index[current_subgraph_index] + tensor_idx;

  for (size_t ix = 0; ix < MAX_TFL_TENSOR_COUNT; ix++) {
    // already used? OK!
    if (tflTensors[ix].index == tensor_idx) {
      return &tflTensors[ix].tensor;
    }
    // passed all the ones we've used, so end of the list?
    if (tflTensors[ix].index == TENSOR_IX_UNUSED) {
      // init the tensor
      init_tflite_tensor(tensor_idx, &tflTensors[ix].tensor);
      tflTensors[ix].index = tensor_idx;
      return &tflTensors[ix].tensor;
    }
  }

  ei_printf("ERR: GetTensor called beyond MAX_TFL_TENSOR_COUNT (%d)\n", MAX_TFL_TENSOR_COUNT);
  return nullptr;
}

static TfLiteEvalTensor* GetEvalTensorImpl(const struct TfLiteContext* context,
                                       int tensor_idx) {

  tensor_idx = tflTensors_subgraph_index[current_subgraph_index] + tensor_idx;

  for (size_t ix = 0; ix < MAX_TFL_EVAL_COUNT; ix++) {
    // already used? OK!
    if (tflEvalTensors[ix].index == tensor_idx) {
      return &tflEvalTensors[ix].tensor;
    }
    // passed all the ones we've used, so end of the list?
    if (tflEvalTensors[ix].index == TENSOR_IX_UNUSED) {
      // init the tensor
      init_tflite_eval_tensor(tensor_idx, &tflEvalTensors[ix].tensor);
      tflEvalTensors[ix].index = tensor_idx;
      return &tflEvalTensors[ix].tensor;
    }
  }

  ei_printf("ERR: GetTensor called beyond MAX_TFL_EVAL_COUNT (%d)\n", (int)MAX_TFL_EVAL_COUNT);
  return nullptr;
}

class EonMicroContext : public MicroContext {
 public:
 
  EonMicroContext(): MicroContext(nullptr, nullptr, nullptr) { }

  void* AllocatePersistentBuffer(size_t bytes) {
    return AllocatePersistentBufferImpl(nullptr, bytes);
  }

  TfLiteStatus RequestScratchBufferInArena(size_t bytes,
                                           int* buffer_index) {
  return RequestScratchBufferInArenaImpl(nullptr, bytes, buffer_index);
  }

  void* GetScratchBuffer(int buffer_index) {
    return GetScratchBufferImpl(nullptr, buffer_index);
  }
 
  TfLiteTensor* AllocateTempTfLiteTensor(int tensor_index) {
    return GetTensorImpl(nullptr, tensor_index);
  }

  void DeallocateTempTfLiteTensor(TfLiteTensor* tensor) {
    return;
  }

  bool IsAllTempTfLiteTensorDeallocated() {
    return true;
  }

  TfLiteEvalTensor* GetEvalTensor(int tensor_index) {
    return GetEvalTensorImpl(nullptr, tensor_index);
  }

};


} // namespace

TfLiteStatus tflite_learn_920529_3_init( void*(*alloc_fnc)(size_t,size_t) ) {
#ifdef EI_CLASSIFIER_ALLOCATION_HEAP
  tensor_arena = (uint8_t*) alloc_fnc(16, kTensorArenaSize);
  if (!tensor_arena) {
    ei_printf("ERR: failed to allocate tensor arena\n");
    return kTfLiteError;
  }
#else
  memset(tensor_arena, 0, kTensorArenaSize);
#endif
  tensor_boundary = tensor_arena;
  current_location = tensor_arena + kTensorArenaSize;

  EonMicroContext micro_context_;
  
  // Set microcontext as the context ptr
  ctx.impl_ = static_cast<void*>(&micro_context_);
  // Setup tflitecontext functions
  ctx.AllocatePersistentBuffer = &AllocatePersistentBufferImpl;
  ctx.RequestScratchBufferInArena = &RequestScratchBufferInArenaImpl;
  ctx.GetScratchBuffer = &GetScratchBufferImpl;
  ctx.GetTensor = &GetTensorImpl;
  ctx.GetEvalTensor = &GetEvalTensorImpl;
  ctx.ReportError = &MicroContextReportOpError;

  ctx.tensors_size = 11;
  for (size_t i = 0; i < 11; ++i) {
    TfLiteTensor tensor;
    init_tflite_tensor(i, &tensor);
    if (tensor.allocation_type == kTfLiteArenaRw) {
      auto data_end_ptr = (uint8_t*)tensor.data.data + tensorData[i].bytes;
      if (data_end_ptr > tensor_boundary) {
        tensor_boundary = data_end_ptr;
      }
    }
  }

  if (tensor_boundary > current_location /* end of arena size */) {
    ei_printf("ERR: tensor arena is too small, does not fit model - even without scratch buffers\n");
    return kTfLiteError;
  }

  registrations[OP_FULLY_CONNECTED] = Register_FULLY_CONNECTED();
  registrations[OP_SOFTMAX] = Register_SOFTMAX();

  for (size_t g = 0; g < 1; ++g) {
    current_subgraph_index = g;
    for(size_t i = tflNodes_subgraph_index[g]; i < tflNodes_subgraph_index[g+1]; ++i) {
      if (registrations[used_ops[i]].init) {
        tflNodes[i].user_data = registrations[used_ops[i]].init(&ctx, (const char*)tflNodes[i].builtin_data, 0);
      }
    }
  }
  current_subgraph_index = 0;

  for(size_t g = 0; g < 1; ++g) {
    current_subgraph_index = g;
    for(size_t i = tflNodes_subgraph_index[g]; i < tflNodes_subgraph_index[g+1]; ++i) {
      if (registrations[used_ops[i]].prepare) {
        ResetTensors();
        TfLiteStatus status = registrations[used_ops[i]].prepare(&ctx, &tflNodes[i]);
        if (status != kTfLiteOk) {
          return status;
        }
      }
    }
  }
  current_subgraph_index = 0;

  return kTfLiteOk;
}

TfLiteStatus tflite_learn_920529_3_input(int index, TfLiteTensor *tensor) {
  init_tflite_tensor(in_tensor_indices[index], tensor);
  return kTfLiteOk;
}

TfLiteStatus tflite_learn_920529_3_output(int index, TfLiteTensor *tensor) {
  init_tflite_tensor(out_tensor_indices[index], tensor);
  return kTfLiteOk;
}

TfLiteStatus tflite_learn_920529_3_invoke() {
  for (size_t i = 0; i < 4; ++i) {
    ResetTensors();

    TfLiteStatus status = registrations[used_ops[i]].invoke(&ctx, &tflNodes[i]);

#if EI_CLASSIFIER_PRINT_STATE
    ei_printf("layer %lu\n", i);
    ei_printf("    inputs:\n");
    for (size_t ix = 0; ix < tflNodes[i].inputs->size; ix++) {
      auto d = tensorData[tflNodes[i].inputs->data[ix]];

      size_t data_ptr = (size_t)d.data;

      if (d.allocation_type == kTfLiteArenaRw) {
        data_ptr = (size_t)tensor_arena + data_ptr;
      }

      if (d.type == TfLiteType::kTfLiteInt8) {
        int8_t* data = (int8_t*)data_ptr;
        ei_printf("        %lu (%zu bytes, ptr=%p, alloc_type=%d, type=%d): ", ix, d.bytes, data, (int)d.allocation_type, (int)d.type);
        for (size_t jx = 0; jx < d.bytes; jx++) {
          ei_printf("%d ", data[jx]);
        }
      }
      else {
        float* data = (float*)data_ptr;
        ei_printf("        %lu (%zu bytes, ptr=%p, alloc_type=%d, type=%d): ", ix, d.bytes, data, (int)d.allocation_type, (int)d.type);
        for (size_t jx = 0; jx < d.bytes / 4; jx++) {
          ei_printf("%f ", data[jx]);
        }
      }
      ei_printf("\n");
    }
    ei_printf("\n");

    ei_printf("    outputs:\n");
    for (size_t ix = 0; ix < tflNodes[i].outputs->size; ix++) {
      auto d = tensorData[tflNodes[i].outputs->data[ix]];

      size_t data_ptr = (size_t)d.data;

      if (d.allocation_type == kTfLiteArenaRw) {
        data_ptr = (size_t)tensor_arena + data_ptr;
      }

      if (d.type == TfLiteType::kTfLiteInt8) {
        int8_t* data = (int8_t*)data_ptr;
        ei_printf("        %lu (%zu bytes, ptr=%p, alloc_type=%d, type=%d): ", ix, d.bytes, data, (int)d.allocation_type, (int)d.type);
        for (size_t jx = 0; jx < d.bytes; jx++) {
          ei_printf("%d ", data[jx]);
        }
      }
      else {
        float* data = (float*)data_ptr;
        ei_printf("        %lu (%zu bytes, ptr=%p, alloc_type=%d, type=%d): ", ix, d.bytes, data, (int)d.allocation_type, (int)d.type);
        for (size_t jx = 0; jx < d.bytes / 4; jx++) {
          ei_printf("%f ", data[jx]);
        }
      }
      ei_printf("\n");
    }
    ei_printf("\n");
#endif // EI_CLASSIFIER_PRINT_STATE

    if (status != kTfLiteOk) {
      return status;
    }
  }
  return kTfLiteOk;
}

TfLiteStatus tflite_learn_920529_3_reset( void (*free_fnc)(void* ptr) ) {
#ifdef EI_CLASSIFIER_ALLOCATION_HEAP
  free_fnc(tensor_arena);
#endif

  // scratch buffers are allocated within the arena, so just reset the counter so memory can be reused
  scratch_buffers_ix = 0;

  // overflow buffers are on the heap, so free them first
  for (size_t ix = 0; ix < overflow_buffers_ix; ix++) {
    ei_free(overflow_buffers[ix]);
  }
  overflow_buffers_ix = 0;
  return kTfLiteOk;
}
